<?xml version='1.0' encoding='UTF-8'?>
<NeuralNetwork><Layer><Neurone><Weight>0.00521422220877</Weight><Weight>0.468469302903</Weight><Weight>1.17993674499</Weight></Neurone><Neurone><Weight>1.23992129268</Weight><Weight>-0.000674219370092</Weight><Weight>0.806410617541</Weight></Neurone><Neurone><Weight>-1.73478083801</Weight><Weight>1.29939239363</Weight><Weight>-1.58368031922</Weight></Neurone><Neurone><Weight>-1.49299473257</Weight><Weight>0.887226437755</Weight><Weight>-0.0117576603687</Weight></Neurone><Neurone><Weight>1.11991058956</Weight><Weight>-0.0887836299654</Weight><Weight>0.218946182229</Weight></Neurone></Layer><Layer><Neurone><Weight>-1.66347342442</Weight><Weight>0.757554258142</Weight><Weight>-0.946127274691</Weight><Weight>-3.38962842726</Weight><Weight>1.31711162005</Weight></Neurone><Neurone><Weight>0.332284417457</Weight><Weight>-0.565559559513</Weight><Weight>-0.0757942903594</Weight><Weight>0.110835714315</Weight><Weight>0.485511997617</Weight></Neurone><Neurone><Weight>0.470289917249</Weight><Weight>0.620681576242</Weight><Weight>0.885084934008</Weight><Weight>-0.581939066755</Weight><Weight>-0.723212355659</Weight></Neurone><Neurone><Weight>-0.263721555884</Weight><Weight>0.728335077008</Weight><Weight>-0.757049275737</Weight><Weight>-1.61690832192</Weight><Weight>-0.484126867564</Weight></Neurone></Layer><Layer><Neurone><Weight>0.527632027427</Weight><Weight>-0.727822961868</Weight><Weight>-0.00243670441234</Weight><Weight>-1.4971889214</Weight></Neurone><Neurone><Weight>1.18686023976</Weight><Weight>-2.32317134555</Weight><Weight>0.149980576419</Weight><Weight>0.0602214454963</Weight></Neurone><Neurone><Weight>0.534569106268</Weight><Weight>0.613427329146</Weight><Weight>0.711035437049</Weight><Weight>0.917406907801</Weight></Neurone></Layer></NeuralNetwork>